svm_type c_svc
kernel_type rbf
gamma 0.8705505632961239
nr_class 2
total_sv 444
rho 3.0399735275081281
label 0 1
nr_sv 195 249
SV
5.8542468378285131 1:-1.0832504 2:-1.0832504 3:0.71686657 4:1.616925 5:0.26683733 6:2.0669543 
0.92463266605926298 1:-0.1831919 2:-1.0832504 3:1.1668958 4:0.71686657 5:1.616925 6:0.26683733 
6.6361030045932985 1:-0.63322113 2:-0.1831919 3:0.26683733 4:0.26683733 5:0.71686657 6:0.71686657 
4.8841918077741004 1:-0.1831919 2:-1.0832504 3:-0.1831919 4:0.71686657 5:0.26683733 6:0.26683733 
4.1990018408470284 1:-0.63322113 2:-0.63322113 3:1.1668958 4:1.616925 5:1.616925 6:1.1668958 
0.0052294672275660144 1:-0.63322113 2:-0.63322113 3:1.1668958 4:1.616925 5:0.71686657 6:2.0669543 
3.9831848328087283 1:-0.1831919 2:0.26683733 3:1.616925 4:0.71686657 5:1.616925 6:1.1668958 
2.3943611833794711 1:-0.1831919 2:-1.0832504 3:0.26683733 4:-0.1831919 5:0.26683733 6:0.26683733 
3.269745873659569 1:-0.1831919 2:-1.0832504 3:-0.1831919 4:0.71686657 5:0.26683733 6:1.1668958 
2.989451064132048 1:-1.0832504 2:-1.0832504 3:-1.5332796 4:0.71686657 5:-1.5332796 6:0.26683733 
1.5350060546394606 1:-0.63322113 2:-0.63322113 3:0.71686657 4:-0.1831919 5:0.26683733 6:-0.63322113 
2.1484636564712321 1:-0.1831919 2:-1.0832504 3:1.616925 4:-0.1831919 5:1.616925 6:-0.63322113 
7.7510216631658126 1:-1.0832504 2:-1.0832504 3:-0.1831919 4:-0.63322113 5:0.26683733 6:-1.0832504 
9.5014887780286301 1:-0.1831919 2:0.26683733 3:-0.63322113 4:-0.63322113 5:-1.0832504 6:-1.0832504 
0.66987794689535252 1:-0.63322113 2:-1.0832504 3:-1.5332796 4:1.1668958 5:-1.5332796 6:0.71686657 
1.6431861429223049 1:-0.1831919 2:-1.0832504 3:-0.1831919 4:1.616925 5:-0.63322113 6:1.1668958 
3.4203162073832267 1:-1.5332796 2:-1.0832504 3:1.1668958 4:0.26683733 5:0.71686657 6:-0.1831919 
6.4691739580985619 1:-1.5332796 2:-1.0832504 3:1.616925 4:-0.1831919 5:1.1668958 6:-0.63322113 
6.7716918484375004 1:-0.1831919 2:-1.0832504 3:-1.0832504 4:-1.0832504 5:-1.5332796 6:-1.0832504 
0.85277807008934281 1:-0.63322113 2:-1.0832504 3:1.1668958 4:0.26683733 5:1.616925 6:0.71686657 
2.8816451678032444 1:-1.0832504 2:-1.0832504 3:0.71686657 4:1.616925 5:1.1668958 6:1.1668958 
5.110099765857286 1:-0.1831919 2:0.26683733 3:-1.5332796 4:-1.0832504 5:-1.0832504 6:-1.0832504 
0.079534981777427738 1:-1.0832504 2:-0.63322113 3:1.1668958 4:1.616925 5:1.616925 6:2.0669543 
1.1054129697100863 1:-1.5332796 2:-1.0832504 3:1.1668958 4:-0.1831919 5:1.616925 6:-0.63322113 
3.9070798411528398 1:-0.1831919 2:-1.0832504 3:-0.63322113 4:1.616925 5:-1.0832504 6:2.0669543 
4.1739475094257825 1:-1.5332796 2:-1.0832504 3:1.1668958 4:1.616925 5:1.616925 6:2.0669543 
2.6041098425660847 1:-0.1831919 2:0.26683733 3:1.1668958 4:1.1668958 5:1.616925 6:0.71686657 
1.6472298160211756 1:-0.1831919 2:-1.0832504 3:-1.5332796 4:2.0669543 5:-1.0832504 6:2.0669543 
5.8227981275727014 1:-0.1831919 2:-1.0832504 3:-1.0832504 4:1.616925 5:-0.63322113 6:2.0669543 
2.4783081176133792 1:-0.63322113 2:-0.63322113 3:-0.1831919 4:1.616925 5:-0.63322113 6:2.0669543 
0.15577035544233761 1:-0.1831919 2:-0.63322113 3:-1.5332796 4:-0.63322113 5:-1.0832504 6:-1.0832504 
1.7846524834509772 1:-0.1831919 2:-0.1831919 3:-1.0832504 4:1.1668958 5:-1.5332796 6:0.71686657 
3.4290666823300717 1:-1.0832504 2:-1.0832504 3:-1.5332796 4:0.71686657 5:-1.0832504 6:1.1668958 
3.907890582272461 1:-0.1831919 2:-1.0832504 3:1.616925 4:1.616925 5:1.1668958 6:2.0669543 
0.21560119869016584 1:-0.1831919 2:-1.0832504 3:-1.5332796 4:0.71686657 5:-1.5332796 6:1.1668958 
0.6608083136955587 1:-0.63322113 2:-1.0832504 3:0.71686657 4:-1.0832504 5:1.1668958 6:-0.63322113 
9.4782733380347359 1:-0.1831919 2:-0.1831919 3:-0.63322113 4:-1.0832504 5:-0.1831919 6:-1.0832504 
4.4936158828066901 1:-0.1831919 2:-0.63322113 3:-0.1831919 4:1.1668958 5:0.26683733 6:1.616925 
0.83170387989877304 1:-0.63322113 2:-1.0832504 3:-1.0832504 4:0.26683733 5:-1.5332796 6:0.71686657 
1.0960224875335736 1:-0.1831919 2:0.26683733 3:1.1668958 4:0.71686657 5:1.616925 6:0.26683733 
3.1251273140890676 1:-0.1831919 2:-1.0832504 3:0.26683733 4:1.616925 5:0.71686657 6:2.0669543 
6.8315840970488004 1:-0.1831919 2:0.26683733 3:0.71686657 4:0.26683733 5:1.1668958 6:-0.1831919 
1.650301592399257 1:-1.5332796 2:-1.0832504 3:1.616925 4:1.616925 5:1.616925 6:1.1668958 
7.59941973225538 1:-0.63322113 2:-1.0832504 3:-1.5332796 4:0.71686657 5:-1.0832504 6:0.26683733 
8.336789730569123 1:-0.1831919 2:-1.0832504 3:-1.5332796 4:-0.1831919 5:-1.0832504 6:0.26683733 
7.1958423696653995 1:-1.5332796 2:-1.0832504 3:1.616925 4:-0.1831919 5:1.1668958 6:0.26683733 
2.8483926199827723 1:-1.0832504 2:-0.63322113 3:1.616925 4:0.71686657 5:1.1668958 6:0.26683733 
1.3929068205140618 1:-0.63322113 2:-1.0832504 3:1.1668958 4:2.0669543 5:1.616925 6:2.0669543 
3.4007952593526611 1:-0.63322113 2:-1.0832504 3:0.26683733 4:-1.0832504 5:0.71686657 6:-1.0832504 
8.1430388465636181 1:-0.1831919 2:-0.1831919 3:0.71686657 4:0.71686657 5:0.26683733 6:1.1668958 
4.5236128101169903 1:-0.1831919 2:-1.0832504 3:1.616925 4:0.26683733 5:1.1668958 6:-0.1831919 
4.4017345257601166 1:-0.1831919 2:-0.63322113 3:0.26683733 4:2.0669543 5:-0.1831919 6:1.616925 
2.2950637623541952 1:-0.1831919 2:-0.1831919 3:-0.1831919 4:2.0669543 5:0.26683733 6:1.616925 
1.252660810997406 1:-0.1831919 2:-0.1831919 3:-1.0832504 4:2.0669543 5:-0.63322113 6:2.0669543 
3.2464212338011977 1:-0.1831919 2:-1.0832504 3:-0.63322113 4:2.0669543 5:-0.1831919 6:1.616925 
6.6098678943697138 1:-1.5332796 2:-1.0832504 3:0.26683733 4:-0.1831919 5:0.71686657 6:0.26683733 
1.530961649692602 1:-1.0832504 2:-1.0832504 3:-0.63322113 4:0.71686657 5:-0.1831919 6:0.26683733 
3.8861463088111603 1:-0.1831919 2:-1.0832504 3:-0.1831919 4:1.616925 5:0.26683733 6:2.0669543 
4.393751104951618 1:-0.1831919 2:-1.0832504 3:1.616925 4:1.1668958 5:1.1668958 6:0.71686657 
6.9547768578653191 1:-1.0832504 2:-1.0832504 3:-0.1831919 4:1.1668958 5:-0.63322113 6:1.616925 
7.6225076939084566 1:-0.1831919 2:-1.0832504 3:-0.1831919 4:-0.1831919 5:-0.63322113 6:0.26683733 
3.4216315617617488 1:-0.63322113 2:-1.0832504 3:-0.1831919 4:2.0669543 5:0.26683733 6:1.616925 
0.56648425606328456 1:-0.1831919 2:-0.1831919 3:-0.63322113 4:2.0669543 5:-1.0832504 6:1.616925 
2.0691888009291377 1:-0.63322113 2:-0.63322113 3:-1.5332796 4:2.0669543 5:-1.0832504 6:1.616925 
2.2022246318886567 1:-0.63322113 2:-1.0832504 3:0.26683733 4:1.616925 5:-0.1831919 6:2.0669543 
3.6663612161488062 1:-1.0832504 2:-0.63322113 3:0.26683733 4:-0.63322113 5:0.71686657 6:-0.1831919 
3.1624820153859465 1:-1.0832504 2:-1.0832504 3:-1.5332796 4:1.616925 5:-1.5332796 6:2.0669543 
1.74162567047297 1:-1.0832504 2:-1.0832504 3:-1.0832504 4:1.616925 5:-1.0832504 6:2.0669543 
0.32412579283234144 1:-0.1831919 2:-1.0832504 3:-1.0832504 4:0.26683733 5:-1.5332796 6:0.71686657 
2.9231545331863633 1:-0.1831919 2:-1.0832504 3:1.616925 4:0.26683733 5:1.1668958 6:0.71686657 
3.8113917716546473 1:-0.63322113 2:-1.0832504 3:0.71686657 4:-0.63322113 5:0.26683733 6:-1.0832504 
7.7051578899065207 1:-0.63322113 2:-1.0832504 3:-1.5332796 4:-0.1831919 5:-1.5332796 6:-0.63322113 
14.836770750304821 1:-0.1831919 2:-1.0832504 3:-1.0832504 4:-0.63322113 5:-0.63322113 6:-0.1831919 
7.3841327053107673 1:-1.0832504 2:-1.0832504 3:-1.0832504 4:0.26683733 5:-0.63322113 6:-0.1831919 
5.5565415481792542 1:-1.5332796 2:-1.0832504 3:0.71686657 4:1.1668958 5:1.1668958 6:1.616925 
3.4556240104448133 1:-0.1831919 2:-0.1831919 3:1.1668958 4:-0.1831919 5:1.616925 6:-0.63322113 
3.2181311679600566 1:-0.1831919 2:0.26683733 3:1.1668958 4:-0.1831919 5:0.71686657 6:-0.63322113 
2.4522740622489803 1:-0.63322113 2:-1.0832504 3:1.616925 4:1.1668958 5:1.1668958 6:1.616925 
4.5042984879138546 1:-0.1831919 2:0.26683733 3:1.1668958 4:-0.1831919 5:1.616925 6:0.26683733 
5.3827680481623306 1:-0.63322113 2:-0.1831919 3:1.1668958 4:1.616925 5:0.71686657 6:1.1668958 
0.068720694974454419 1:-1.0832504 2:-0.63322113 3:0.26683733 4:0.26683733 5:0.71686657 6:0.71686657 
4.7271083023496878 1:-0.1831919 2:0.26683733 3:0.71686657 4:1.1668958 5:1.1668958 6:1.616925 
0.68744079302197914 1:-0.1831919 2:-0.63322113 3:0.71686657 4:-1.0832504 5:1.1668958 6:-1.0832504 
2.0530589401862573 1:-0.1831919 2:-0.63322113 3:0.71686657 4:0.26683733 5:1.1668958 6:0.71686657 
3.2952635019143668 1:-0.1831919 2:-0.63322113 3:1.616925 4:-0.1831919 5:1.1668958 6:0.26683733 
2.9150468951686586 1:-0.1831919 2:-0.63322113 3:0.71686657 4:0.26683733 5:1.1668958 6:-0.1831919 
4.5194530129124297 1:-1.0832504 2:-1.0832504 3:0.71686657 4:0.26683733 5:1.1668958 6:0.71686657 
10.256677545700995 1:-0.1831919 2:-0.1831919 3:-1.0832504 4:0.26683733 5:-0.63322113 6:0.71686657 
2.9055389652790788 1:-1.5332796 2:-1.0832504 3:-0.1831919 4:-0.63322113 5:0.26683733 6:-1.0832504 
2.0202277760752905 1:-0.63322113 2:-0.63322113 3:0.71686657 4:-0.63322113 5:1.1668958 6:-0.1831919 
3.5591765273650431 1:-1.0832504 2:-1.0832504 3:1.1668958 4:-0.1831919 5:0.71686657 6:0.26683733 
6.5849323800136403 1:-1.0832504 2:-0.63322113 3:1.616925 4:1.616925 5:1.1668958 6:1.1668958 
2.6904199869757108 1:-0.63322113 2:-0.63322113 3:0.71686657 4:-0.1831919 5:1.1668958 6:0.26683733 
1.4608818216426878 1:-1.0832504 2:-0.63322113 3:1.616925 4:0.26683733 5:1.1668958 6:-0.1831919 
0.35196263659586408 1:-0.1831919 2:-1.0832504 3:-0.63322113 4:1.1668958 5:-1.0832504 6:0.71686657 
8.6729323516435386 1:-1.5332796 2:-1.0832504 3:1.1668958 4:0.71686657 5:1.616925 6:1.1668958 
8.1797052297725745 1:-1.5332796 2:-1.0832504 3:0.26683733 4:-0.1831919 5:0.71686657 6:-0.63322113 
4.1778034117019596 1:-0.1831919 2:-1.0832504 3:0.26683733 4:0.71686657 5:-0.1831919 6:0.26683733 
6.0803326400707283 1:-0.1831919 2:-0.63322113 3:1.616925 4:-0.63322113 5:1.1668958 6:-1.0832504 
1.4693760482680771 1:-0.1831919 2:-0.1831919 3:0.71686657 4:0.71686657 5:1.1668958 6:1.1668958 
7.9891270474661233 1:-0.1831919 2:-0.1831919 3:-1.5332796 4:1.1668958 5:-1.0832504 6:1.616925 
6.8348420993298014 1:-0.63322113 2:-1.0832504 3:-1.0832504 4:1.1668958 5:-1.5332796 6:1.616925 
5.1027183198397763 1:-0.1831919 2:-0.1831919 3:-1.0832504 4:-0.63322113 5:-1.5332796 6:-0.1831919 
4.0483839878049492 1:-0.1831919 2:-1.0832504 3:0.26683733 4:1.616925 5:0.71686657 6:1.1668958 
9.0753408903192998 1:-0.1831919 2:-0.63322113 3:-0.63322113 4:0.26683733 5:-1.0832504 6:0.71686657 
11.020478863720898 1:-0.1831919 2:-0.1831919 3:-0.1831919 4:1.616925 5:-0.63322113 6:1.1668958 
0.52095579454138685 1:-0.1831919 2:-0.1831919 3:0.71686657 4:1.1668958 5:0.26683733 6:0.71686657 
4.6411210784298005 1:-0.63322113 2:-0.1831919 3:0.26683733 4:0.71686657 5:0.71686657 6:1.1668958 
5.6295500498445215 1:-1.0832504 2:-1.0832504 3:-1.0832504 4:-0.1831919 5:-1.5332796 6:-0.1831919 
0.58103644792181308 1:-0.1831919 2:-0.1831919 3:0.26683733 4:2.0669543 5:-0.1831919 6:2.0669543 
3.4038141981666494 1:-0.1831919 2:-0.63322113 3:-1.0832504 4:1.616925 5:-0.63322113 6:1.1668958 
1.8742907832562361 1:-0.63322113 2:-0.1831919 3:0.26683733 4:-1.0832504 5:0.71686657 6:-0.63322113 
8.081546428369812 1:-0.1831919 2:-1.0832504 3:-0.1831919 4:0.26683733 5:0.26683733 6:0.71686657 
0.50878857771221608 1:-1.5332796 2:-1.0832504 3:0.71686657 4:0.26683733 5:0.26683733 6:0.71686657 
6.1455947489582021 1:-0.63322113 2:-0.1831919 3:1.1668958 4:0.26683733 5:1.616925 6:-0.1831919 
2.1124354814373683 1:-1.0832504 2:-0.63322113 3:1.1668958 4:-0.63322113 5:0.71686657 6:-1.0832504 
3.1720913223804219 1:-0.1831919 2:-1.0832504 3:-1.0832504 4:1.616925 5:-1.5332796 6:2.0669543 
8.9688483402243726 1:-1.0832504 2:-0.63322113 3:-0.1831919 4:0.26683733 5:0.26683733 6:-0.1831919 
5.2243636691973707 1:-1.0832504 2:-1.0832504 3:-0.1831919 4:1.616925 5:0.26683733 6:2.0669543 
1.2102173528505364 1:-0.1831919 2:-0.1831919 3:-0.1831919 4:1.616925 5:0.26683733 6:2.0669543 
6.4257663129782836 1:-0.1831919 2:-0.1831919 3:-1.0832504 4:0.71686657 5:-1.5332796 6:0.26683733 
11.451197599710284 1:-0.63322113 2:-1.0832504 3:-0.1831919 4:-0.1831919 5:0.26683733 6:-0.63322113 
6.0424832435747984 1:-0.63322113 2:-1.0832504 3:0.26683733 4:1.1668958 5:0.71686657 6:1.616925 
5.0333268012101904 1:-1.0832504 2:-0.63322113 3:1.1668958 4:0.71686657 5:0.71686657 6:1.1668958 
0.89837672632164967 1:-0.1831919 2:-0.63322113 3:-1.0832504 4:-0.1831919 5:-1.5332796 6:0.26683733 
3.6598078207223108 1:-0.63322113 2:-0.1831919 3:-1.5332796 4:-0.63322113 5:-1.0832504 6:-1.0832504 
0.50440939888633318 1:-0.63322113 2:-1.0832504 3:1.616925 4:-1.0832504 5:1.1668958 6:-0.63322113 
4.3350524965061377 1:-0.1831919 2:-0.63322113 3:-1.0832504 4:-0.1831919 5:-1.0832504 6:-0.63322113 
2.4336547873838787 1:-0.63322113 2:-1.0832504 3:1.1668958 4:2.0669543 5:0.71686657 6:1.616925 
3.2141526846591209 1:-0.63322113 2:-0.1831919 3:1.616925 4:-1.0832504 5:1.1668958 6:-0.63322113 
1.9951439940590121 1:-0.1831919 2:-0.1831919 3:-1.5332796 4:1.616925 5:-1.0832504 6:1.1668958 
10.790490559073527 1:-0.1831919 2:0.26683733 3:0.26683733 4:-0.63322113 5:-0.1831919 6:-0.63322113 
0.64068514772960516 1:-0.63322113 2:-0.63322113 3:0.26683733 4:1.616925 5:0.71686657 6:1.1668958 
5.531856434481182 1:-0.1831919 2:0.26683733 3:1.1668958 4:-0.63322113 5:1.616925 6:-1.0832504 
2.5467464018755068 1:-0.1831919 2:-1.0832504 3:1.616925 4:-0.63322113 5:1.616925 6:-1.0832504 
12.205150572538383 1:-1.5332796 2:-1.0832504 3:1.1668958 4:-0.63322113 5:0.71686657 6:-0.1831919 
7.5438056360770647 1:-0.1831919 2:-0.1831919 3:0.71686657 4:-0.63322113 5:0.26683733 6:-1.0832504 
3.748021461492387 1:-0.1831919 2:0.26683733 3:-0.63322113 4:-1.0832504 5:-0.1831919 6:-1.0832504 
5.2152670707577675 1:-0.1831919 2:-1.0832504 3:-0.1831919 4:0.71686657 5:-0.63322113 6:0.26683733 
1.3650141642474822 1:-0.1831919 2:-0.1831919 3:1.1668958 4:-0.63322113 5:0.71686657 6:-0.1831919 
1.3033955706622942 1:-0.63322113 2:-1.0832504 3:-0.1831919 4:-0.1831919 5:-0.63322113 6:0.26683733 
0.10664865781145516 1:-0.1831919 2:-0.63322113 3:-1.5332796 4:1.1668958 5:-1.0832504 6:0.71686657 
6.4912338083704961 1:-1.0832504 2:-0.63322113 3:0.26683733 4:-1.0832504 5:-0.1831919 6:-0.63322113 
8.7127892140430188 1:-1.0832504 2:-1.0832504 3:-0.1831919 4:-0.63322113 5:0.26683733 6:-0.1831919 
3.6784050983574637 1:-0.1831919 2:-0.63322113 3:-1.0832504 4:-0.1831919 5:-0.63322113 6:0.26683733 
2.0254243463521808 1:-0.1831919 2:0.26683733 3:1.616925 4:0.26683733 5:1.1668958 6:-0.1831919 
3.7567548777127913 1:-0.1831919 2:-0.1831919 3:1.616925 4:2.0669543 5:1.1668958 6:1.616925 
1.6722621952367505 1:-0.63322113 2:-0.1831919 3:1.616925 4:0.71686657 5:1.1668958 6:1.1668958 
2.0645945812006357 1:-0.63322113 2:-0.1831919 3:1.1668958 4:1.616925 5:1.616925 6:2.0669543 
2.4809157897773408 1:-0.1831919 2:-0.1831919 3:-1.0832504 4:-0.1831919 5:-1.0832504 6:0.26683733 
2.9997255076626814 1:-0.1831919 2:-0.63322113 3:1.616925 4:0.71686657 5:1.1668958 6:1.1668958 
7.1803631243959103 1:-0.63322113 2:-0.1831919 3:0.26683733 4:-0.1831919 5:0.71686657 6:0.26683733 
2.4165944404387725 1:-0.1831919 2:-0.63322113 3:0.71686657 4:1.616925 5:1.1668958 6:2.0669543 
3.8439755658067516 1:-0.1831919 2:-1.0832504 3:1.1668958 4:1.1668958 5:0.71686657 6:1.616925 
3.9183091282870537 1:-0.1831919 2:-0.1831919 3:-1.0832504 4:2.0669543 5:-1.5332796 6:2.0669543 
1.2783570779381563 1:-1.5332796 2:-1.0832504 3:0.71686657 4:-1.0832504 5:1.1668958 6:-1.0832504 
4.9906485027536505 1:-0.63322113 2:-1.0832504 3:-1.0832504 4:1.1668958 5:-0.63322113 6:0.71686657 
8.4680563498356936 1:-1.5332796 2:-1.0832504 3:-0.63322113 4:-0.63322113 5:-0.63322113 6:-0.1831919 
0.89618057348165714 1:-0.63322113 2:-0.63322113 3:0.71686657 4:0.71686657 5:0.26683733 6:0.26683733 
1.1548564771418657 1:-1.5332796 2:-1.0832504 3:1.1668958 4:-1.0832504 5:1.616925 6:-1.0832504 
3.8950056722106994 1:-1.0832504 2:-1.0832504 3:0.26683733 4:0.71686657 5:-0.1831919 6:1.1668958 
2.906537343697118 1:-0.1831919 2:-0.63322113 3:1.1668958 4:0.71686657 5:0.71686657 6:0.26683733 
1.432450626941385 1:-0.1831919 2:-0.1831919 3:1.1668958 4:0.26683733 5:0.71686657 6:0.71686657 
3.6420765952537089 1:-0.1831919 2:-0.1831919 3:0.71686657 4:2.0669543 5:0.26683733 6:1.616925 
3.2767758048451441 1:-0.63322113 2:-0.63322113 3:-0.63322113 4:0.71686657 5:-1.0832504 6:1.1668958 
6.7455140946835179 1:-0.63322113 2:-1.0832504 3:-1.0832504 4:1.1668958 5:-0.63322113 6:1.616925 
4.7962765507014318 1:-1.5332796 2:-1.0832504 3:1.1668958 4:-1.0832504 5:1.616925 6:-0.63322113 
2.2352402883933844 1:-0.1831919 2:0.26683733 3:1.616925 4:-0.63322113 5:1.616925 6:-0.1831919 
4.5640477802038566 1:-0.1831919 2:-0.63322113 3:1.1668958 4:-1.0832504 5:0.71686657 6:-0.63322113 
3.5366246828455155 1:-0.1831919 2:-0.63322113 3:-1.0832504 4:-1.0832504 5:-1.5332796 6:-0.63322113 
2.4186985999269828 1:-1.5332796 2:-1.0832504 3:1.616925 4:0.71686657 5:1.616925 6:0.26683733 
4.2746403957770731 1:-0.1831919 2:0.26683733 3:1.616925 4:2.0669543 5:1.1668958 6:1.616925 
0.36656260355687054 1:-1.5332796 2:-1.0832504 3:1.1668958 4:1.1668958 5:0.71686657 6:1.1668958 
1.8067129424158999 1:-0.1831919 2:0.26683733 3:-1.5332796 4:-1.0832504 5:-1.0832504 6:-0.63322113 
2.6467270848553976 1:-0.1831919 2:-0.63322113 3:1.1668958 4:0.26683733 5:0.71686657 6:-0.1831919 
2.1896330532933828 1:-1.5332796 2:-1.0832504 3:-0.1831919 4:-1.0832504 5:-0.63322113 6:-1.0832504 
6.6072455561350107 1:-0.1831919 2:-0.63322113 3:-0.63322113 4:1.616925 5:-0.1831919 6:1.1668958 
1.1896907195663213 1:-1.0832504 2:-0.63322113 3:1.1668958 4:1.1668958 5:1.616925 6:0.71686657 
0.074851920043489617 1:-0.1831919 2:0.26683733 3:-0.1831919 4:-1.0832504 5:-0.1831919 6:-0.63322113 
9.8033619083642964 1:-0.63322113 2:-0.1831919 3:-0.1831919 4:-1.0832504 5:0.26683733 6:-1.0832504 
2.889632006938704 1:-1.0832504 2:-0.63322113 3:0.71686657 4:1.1668958 5:1.1668958 6:0.71686657 
1.6083931815492918 1:-0.1831919 2:-0.63322113 3:-1.0832504 4:1.1668958 5:-1.5332796 6:1.616925 
9.5081390082766966 1:-0.63322113 2:-0.63322113 3:-0.63322113 4:0.71686657 5:-1.0832504 6:0.26683733 
2.8293070661290312 1:-0.1831919 2:-0.63322113 3:1.1668958 4:2.0669543 5:1.616925 6:1.616925 
4.3715587405446374 1:-0.63322113 2:-1.0832504 3:0.71686657 4:-0.63322113 5:1.1668958 6:-1.0832504 
2.8584167752326346 1:-0.63322113 2:-0.63322113 3:0.26683733 4:0.26683733 5:0.71686657 6:-0.1831919 
0.61595671403635999 1:-0.1831919 2:0.26683733 3:0.71686657 4:-1.0832504 5:1.1668958 6:-1.0832504 
4.4662118569196991 1:-0.1831919 2:-0.1831919 3:0.26683733 4:2.0669543 5:0.71686657 6:1.616925 
1.4122583080242068 1:-0.63322113 2:-0.1831919 3:0.71686657 4:1.1668958 5:1.1668958 6:0.71686657 
0.083569584262481802 1:-0.63322113 2:-0.63322113 3:1.616925 4:0.71686657 5:1.1668958 6:0.26683733 
2.679047902667786 1:-1.5332796 2:-1.0832504 3:0.26683733 4:0.71686657 5:-0.1831919 6:0.26683733 
2.9193612567838021 1:-0.1831919 2:-0.63322113 3:1.1668958 4:1.1668958 5:0.71686657 6:1.616925 
0.53015105422397157 1:-0.1831919 2:-0.63322113 3:-1.0832504 4:0.26683733 5:-1.5332796 6:-0.1831919 
4.5678859539036392 1:-0.1831919 2:-1.0832504 3:1.1668958 4:-1.0832504 5:1.616925 6:-0.63322113 
7.9251842265831041 1:-0.1831919 2:-1.0832504 3:0.71686657 4:-0.63322113 5:0.26683733 6:-0.1831919 
-1.4776948300722721 1:-1.5332796 2:-1.0832504 3:1.616925 4:-0.1831919 5:1.1668958 6:0.71686657 
-0.043357016541476931 1:-1.5332796 2:-1.0832504 3:1.616925 4:0.71686657 5:1.1668958 6:-0.1831919 
-2.2113987576915841 1:-0.1831919 2:-1.0832504 3:-1.5332796 4:-0.1831919 5:-1.5332796 6:-1.0832504 
-3.6157534789386911 1:-0.63322113 2:-0.63322113 3:-0.63322113 4:0.26683733 5:-1.5332796 6:0.26683733 
-2.5695130354794107 1:-0.63322113 2:-0.63322113 3:1.1668958 4:2.0669543 5:0.26683733 6:2.0669543 
-2.1969899277561091 1:-0.1831919 2:-0.1831919 3:1.616925 4:-1.0832504 5:0.71686657 6:-1.0832504 
-2.2225533401352711 1:-1.0832504 2:-1.0832504 3:1.616925 4:2.0669543 5:1.616925 6:1.1668958 
-2.671977569317018 1:-1.5332796 2:-1.0832504 3:-0.63322113 4:-0.63322113 5:0.26683733 6:-1.0832504 
-0.011029589342763093 1:-0.1831919 2:-0.63322113 3:-1.5332796 4:-0.63322113 5:-1.0832504 6:0.26683733 
-1.8082712679462665 1:-0.63322113 2:-0.1831919 3:0.71686657 4:0.71686657 5:1.616925 6:0.71686657 
-4.5561608792842971 1:-0.1831919 2:0.26683733 3:0.71686657 4:-1.0832504 5:-0.1831919 6:-1.0832504 
-2.1093693046864392 1:-1.0832504 2:-1.0832504 3:-0.1831919 4:2.0669543 5:0.71686657 6:2.0669543 
-2.1980402684494416 1:-0.1831919 2:-1.0832504 3:0.71686657 4:-1.0832504 5:0.26683733 6:-0.1831919 
-7.4756007676187162 1:-0.63322113 2:-1.0832504 3:-0.63322113 4:0.71686657 5:-0.63322113 6:-0.1831919 
-6.7273294582084597 1:-0.1831919 2:-0.63322113 3:-0.63322113 4:1.616925 5:-0.63322113 6:0.71686657 
-2.6329380875780295 1:-1.5332796 2:-1.0832504 3:1.616925 4:1.1668958 5:1.616925 6:0.26683733 
-4.9750847424104645 1:-0.63322113 2:-1.0832504 3:-1.5332796 4:0.71686657 5:-1.5332796 6:-0.1831919 
-0.60600307641292284 1:-0.1831919 2:-1.0832504 3:0.71686657 4:0.71686657 5:1.616925 6:0.26683733 
-5.6519616928765437 1:-0.1831919 2:-0.63322113 3:1.616925 4:-0.63322113 5:0.71686657 6:-0.63322113 
-5.0067723884854036 1:-1.5332796 2:-1.0832504 3:1.1668958 4:0.71686657 5:1.1668958 6:1.616925 
-2.3997032742808879 1:-0.1831919 2:-1.0832504 3:0.26683733 4:1.1668958 5:1.1668958 6:1.1668958 
-1.577747596246815 1:-1.0832504 2:-1.0832504 3:-0.1831919 4:-0.63322113 5:-0.63322113 6:0.26683733 
-5.5144328707998138 1:-0.63322113 2:-0.63322113 3:1.1668958 4:0.71686657 5:1.1668958 6:-0.1831919 
-3.3935156285182657 1:-0.1831919 2:-0.1831919 3:0.26683733 4:1.616925 5:-0.63322113 6:1.616925 
-6.8841579584461146 1:-0.1831919 2:-0.1831919 3:0.71686657 4:0.71686657 5:0.71686657 6:1.616925 
-1.8097196092100576 1:-0.63322113 2:-1.0832504 3:0.26683733 4:1.1668958 5:-0.63322113 6:0.71686657 
-4.1678862102995717 1:-0.1831919 2:0.26683733 3:1.1668958 4:-0.63322113 5:1.1668958 6:0.26683733 
-1.1891295066717293 1:-0.1831919 2:-0.63322113 3:1.616925 4:-0.1831919 5:1.616925 6:-1.0832504 
-0.10349502674641999 1:-0.1831919 2:-1.0832504 3:-1.0832504 4:0.71686657 5:-1.0832504 6:-0.1831919 
-1.7674704829995014 1:-1.5332796 2:-1.0832504 3:-0.1831919 4:0.26683733 5:0.26683733 6:-0.63322113 
-3.0707318076519075 1:-1.0832504 2:-0.63322113 3:0.71686657 4:-0.1831919 5:0.71686657 6:0.71686657 
-0.073586635209883317 1:-0.63322113 2:-1.0832504 3:-0.63322113 4:0.26683733 5:0.26683733 6:-0.1831919 
-1.4416636454246166 1:-1.5332796 2:-1.0832504 3:0.71686657 4:0.26683733 5:1.616925 6:0.26683733 
-2.607118089550478 1:-0.1831919 2:-0.63322113 3:1.616925 4:0.71686657 5:1.616925 6:-0.1831919 
-5.6079270856588543 1:-0.1831919 2:-0.1831919 3:0.71686657 4:-0.63322113 5:1.616925 6:-0.63322113 
-6.6165155880750355 1:-1.0832504 2:-1.0832504 3:0.26683733 4:-0.1831919 5:0.26683733 6:-1.0832504 
-0.45997289438808642 1:-1.5332796 2:-1.0832504 3:0.26683733 4:1.616925 5:1.1668958 6:1.1668958 
-0.16054746849398302 1:-0.1831919 2:-0.63322113 3:-0.1831919 4:0.71686657 5:0.71686657 6:0.71686657 
-5.9626239529410281 1:-0.63322113 2:-1.0832504 3:-1.0832504 4:1.1668958 5:-1.5332796 6:2.0669543 
-1.1595750197972912 1:-0.1831919 2:0.26683733 3:0.26683733 4:0.71686657 5:1.1668958 6:1.1668958 
-0.050320759402654069 1:-0.63322113 2:-0.63322113 3:-0.63322113 4:2.0669543 5:-1.5332796 6:1.616925 
-0.85867145080717888 1:-0.1831919 2:-0.1831919 3:0.71686657 4:0.71686657 5:-0.1831919 6:0.71686657 
-0.90224754482544511 1:-1.5332796 2:-1.0832504 3:-0.1831919 4:0.71686657 5:0.26683733 6:-0.1831919 
-1.1764871987871981 1:-1.0832504 2:-1.0832504 3:0.26683733 4:0.71686657 5:0.26683733 6:1.616925 
-0.87593535578904913 1:-0.63322113 2:-0.63322113 3:-0.63322113 4:2.0669543 5:0.26683733 6:2.0669543 
-1.1412697782775805 1:-0.1831919 2:0.26683733 3:1.1668958 4:-0.1831919 5:1.616925 6:-1.0832504 
-1.8580462082017992 1:-0.63322113 2:-1.0832504 3:0.71686657 4:-0.1831919 5:1.616925 6:-0.1831919 
-2.1579403151749168 1:-1.5332796 2:-1.0832504 3:0.71686657 4:-0.63322113 5:1.616925 6:-1.0832504 
-3.6307402665754185 1:-1.5332796 2:-1.0832504 3:1.1668958 4:-1.0832504 5:1.616925 6:-0.1831919 
-3.7331166471077486 1:-0.1831919 2:-0.1831919 3:-0.63322113 4:-0.63322113 5:-1.0832504 6:-0.1831919 
-0.98769268772206709 1:-0.1831919 2:-0.1831919 3:-0.63322113 4:-0.63322113 5:-1.5332796 6:-1.0832504 
-2.9610388703335215 1:-0.1831919 2:-0.1831919 3:-1.0832504 4:1.1668958 5:-0.1831919 6:1.1668958 
-4.1634165010376618 1:-0.1831919 2:0.26683733 3:0.71686657 4:-0.1831919 5:-0.1831919 6:-0.63322113 
-0.67022816685328812 1:-0.1831919 2:-0.1831919 3:0.71686657 4:1.616925 5:-0.1831919 6:1.616925 
-0.84255771710449578 1:-0.1831919 2:-0.1831919 3:1.1668958 4:0.71686657 5:1.1668958 6:1.616925 
-3.6836062091248656 1:-0.63322113 2:-0.1831919 3:0.26683733 4:-1.0832504 5:0.26683733 6:-0.1831919 
-1.9661836766287535 1:-1.0832504 2:-0.63322113 3:0.26683733 4:0.26683733 5:1.1668958 6:0.26683733 
-6.6954509664008883 1:-0.1831919 2:-0.63322113 3:1.616925 4:1.1668958 5:0.71686657 6:1.1668958 
-2.6418279441212582 1:-0.1831919 2:-0.1831919 3:-0.63322113 4:2.0669543 5:-1.5332796 6:2.0669543 
-0.10088972875866051 1:-0.1831919 2:-1.0832504 3:0.26683733 4:0.26683733 5:-0.63322113 6:0.71686657 
-5.2850860961611952 1:-0.1831919 2:-0.63322113 3:1.616925 4:0.26683733 5:0.71686657 6:0.26683733 
-0.39012334175294644 1:-1.0832504 2:-1.0832504 3:-0.63322113 4:0.71686657 5:-1.0832504 6:-0.1831919 
-0.60389591286180067 1:-0.63322113 2:-1.0832504 3:0.26683733 4:1.616925 5:0.71686657 6:0.71686657 
-5.0286974593252474 1:-0.63322113 2:-0.1831919 3:0.71686657 4:1.616925 5:1.616925 6:1.616925 
-0.36076849085573059 1:-0.1831919 2:-1.0832504 3:1.616925 4:0.71686657 5:1.616925 6:1.616925 
-3.1546543142547843 1:-0.1831919 2:-0.1831919 3:0.26683733 4:2.0669543 5:0.26683733 6:1.1668958 
-4.5574305253988543 1:-0.1831919 2:-1.0832504 3:0.26683733 4:0.26683733 5:0.26683733 6:1.1668958 
-2.420391310480702 1:-0.1831919 2:-0.63322113 3:0.26683733 4:2.0669543 5:-0.63322113 6:2.0669543 
-2.8207427413082544 1:-0.1831919 2:-0.63322113 3:0.26683733 4:2.0669543 5:1.1668958 6:2.0669543 
-3.8736085285555957 1:-0.1831919 2:0.26683733 3:0.71686657 4:0.26683733 5:1.616925 6:-0.1831919 
-3.6512498928599526 1:-1.0832504 2:-1.0832504 3:1.1668958 4:1.1668958 5:1.1668958 6:2.0669543 
-4.1108957566341813 1:-0.1831919 2:-1.0832504 3:-0.1831919 4:0.26683733 5:-1.0832504 6:0.26683733 
-0.65704160188003569 1:-0.63322113 2:-1.0832504 3:1.616925 4:2.0669543 5:1.616925 6:1.1668958 
-2.3573017765795359 1:-0.1831919 2:-1.0832504 3:1.1668958 4:-0.63322113 5:0.26683733 6:-0.1831919 
-5.0175040358090426 1:-0.1831919 2:-0.1831919 3:-1.0832504 4:-0.1831919 5:-1.0832504 6:-1.0832504 
-4.6763700552975349 1:-1.0832504 2:-1.0832504 3:0.71686657 4:-0.63322113 5:-0.1831919 6:-0.63322113 
-1.3127890000100688 1:-1.0832504 2:-0.63322113 3:1.616925 4:-0.63322113 5:0.71686657 6:-0.63322113 
-5.9732418195720607 1:-0.63322113 2:-1.0832504 3:-1.5332796 4:0.26683733 5:-0.63322113 6:0.26683733 
-6.9417677057318752 1:-0.1831919 2:-1.0832504 3:-1.5332796 4:-0.63322113 5:-0.63322113 6:-0.1831919 
-1.6252681427681068 1:-0.63322113 2:-1.0832504 3:-1.5332796 4:2.0669543 5:-1.5332796 6:1.1668958 
-2.989169613455561 1:-0.1831919 2:-1.0832504 3:-0.63322113 4:2.0669543 5:-1.5332796 6:2.0669543 
-1.9210965965956091 1:-1.0832504 2:-0.63322113 3:1.1668958 4:-0.63322113 5:0.26683733 6:-0.63322113 
-2.5858195344398429 1:-0.63322113 2:-1.0832504 3:-0.63322113 4:0.71686657 5:-0.63322113 6:1.616925 
-0.32938892195918335 1:-1.5332796 2:-1.0832504 3:-1.0832504 4:0.26683733 5:-0.63322113 6:-0.63322113 
-0.61405970037898938 1:-0.63322113 2:-0.63322113 3:-1.5332796 4:-0.1831919 5:-1.5332796 6:0.71686657 
-6.3080767026005917 1:-0.1831919 2:-1.0832504 3:0.26683733 4:0.71686657 5:0.26683733 6:-0.1831919 
-4.8545244120806128 1:-0.1831919 2:-1.0832504 3:1.616925 4:-0.1831919 5:1.616925 6:-1.0832504 
-1.277456233051069 1:-1.5332796 2:-1.0832504 3:-0.1831919 4:-0.1831919 5:-0.1831919 6:-1.0832504 
-6.3119019676693879 1:-1.5332796 2:-1.0832504 3:0.71686657 4:0.71686657 5:1.616925 6:1.1668958 
-2.8537466623532457 1:-0.63322113 2:-0.63322113 3:-0.1831919 4:0.71686657 5:0.71686657 6:0.71686657 
-1.4677074924890139 1:-0.63322113 2:-0.63322113 3:0.71686657 4:1.1668958 5:-0.1831919 6:1.1668958 
-1.592171689737667 1:-0.63322113 2:-0.1831919 3:1.616925 4:-0.63322113 5:1.616925 6:0.26683733 
-2.9210848277220434 1:-1.0832504 2:-1.0832504 3:1.616925 4:0.26683733 5:1.616925 6:1.1668958 
-7.5732509208513088 1:-1.0832504 2:-0.63322113 3:1.616925 4:1.1668958 5:0.71686657 6:1.1668958 
-0.59053447519165869 1:-0.63322113 2:-1.0832504 3:1.616925 4:2.0669543 5:0.71686657 6:1.616925 
-0.71215395151699501 1:-0.63322113 2:-1.0832504 3:-0.1831919 4:2.0669543 5:0.71686657 6:2.0669543 
-4.6237768891119444 1:-0.1831919 2:0.26683733 3:-0.63322113 4:-1.0832504 5:-1.5332796 6:-1.0832504 
-0.72043292188418773 1:-1.0832504 2:-1.0832504 3:-0.63322113 4:1.616925 5:-1.5332796 6:1.616925 
-1.0021233626685666 1:-0.63322113 2:-0.63322113 3:-1.5332796 4:1.1668958 5:-1.5332796 6:0.26683733 
-1.1317862950947208 1:-0.63322113 2:-0.1831919 3:1.616925 4:2.0669543 5:1.1668958 6:1.1668958 
-1.6214583014088924 1:-1.0832504 2:-1.0832504 3:1.616925 4:-1.0832504 5:1.1668958 6:-0.1831919 
-5.3858431077847602 1:-0.1831919 2:-1.0832504 3:0.26683733 4:0.26683733 5:-0.63322113 6:0.26683733 
-1.7216602942707666 1:-0.1831919 2:-0.1831919 3:-1.5332796 4:1.1668958 5:-0.63322113 6:0.71686657 
-2.0122817707642056 1:-1.0832504 2:-1.0832504 3:-0.1831919 4:-0.63322113 5:0.71686657 6:-1.0832504 
-1.477223626736264 1:-1.0832504 2:-1.0832504 3:0.71686657 4:0.26683733 5:0.71686657 6:-0.63322113 
-7.3391799836602001 1:-0.63322113 2:-0.1831919 3:0.71686657 4:0.26683733 5:1.616925 6:0.26683733 
-1.0876398889464127 1:-0.1831919 2:-0.63322113 3:1.616925 4:0.71686657 5:0.71686657 6:0.71686657 
-0.99090426105901153 1:-1.0832504 2:-1.0832504 3:1.1668958 4:-0.63322113 5:1.1668958 6:0.26683733 
-2.16574656212177 1:-0.63322113 2:-0.63322113 3:1.616925 4:0.26683733 5:0.71686657 6:0.26683733 
-0.69502580927004565 1:-1.5332796 2:-1.0832504 3:0.71686657 4:1.616925 5:0.71686657 6:0.71686657 
-2.3633863547403644 1:-0.63322113 2:-1.0832504 3:-1.5332796 4:1.1668958 5:-1.0832504 6:2.0669543 
-0.13342217920319474 1:-0.1831919 2:-1.0832504 3:-0.1831919 4:0.71686657 5:-0.1831919 6:-0.1831919 
-1.4957418057711789 1:-1.0832504 2:-0.63322113 3:0.71686657 4:-1.0832504 5:1.616925 6:-1.0832504 
-1.6234371383926449 1:-1.0832504 2:-1.0832504 3:1.616925 4:-0.63322113 5:0.71686657 6:-0.63322113 
-0.44456710829885182 1:-0.1831919 2:-0.63322113 3:-1.5332796 4:-0.1831919 5:-1.0832504 6:-1.0832504 
-1.7018829229496109 1:-0.63322113 2:-1.0832504 3:0.26683733 4:-0.63322113 5:0.26683733 6:0.26683733 
-7.398111053696141 1:-0.1831919 2:-0.1831919 3:-0.1831919 4:-0.63322113 5:-0.1831919 6:-1.0832504 
-3.8563744818577654 1:-1.0832504 2:-1.0832504 3:1.1668958 4:-0.1831919 5:1.1668958 6:0.71686657 
-12.650037659594737 1:-0.1831919 2:-0.1831919 3:-0.63322113 4:0.26683733 5:-1.0832504 6:0.26683733 
-4.7266825093014848 1:-0.63322113 2:-0.63322113 3:-0.1831919 4:-0.63322113 5:0.26683733 6:-1.0832504 
-6.0604491520171129 1:-0.1831919 2:0.26683733 3:1.1668958 4:0.26683733 5:1.1668958 6:-0.63322113 
-1.1565886535979866 1:-1.0832504 2:-1.0832504 3:0.26683733 4:-0.1831919 5:-0.63322113 6:-0.1831919 
-3.190999020468662 1:-0.1831919 2:-0.1831919 3:0.71686657 4:2.0669543 5:0.71686657 6:1.1668958 
-0.080984020703714965 1:-1.5332796 2:-1.0832504 3:0.71686657 4:1.616925 5:1.616925 6:1.1668958 
-1.4904066184517792 1:-0.63322113 2:-1.0832504 3:0.71686657 4:2.0669543 5:0.26683733 6:1.1668958 
-2.2039478664510206 1:-0.1831919 2:-0.63322113 3:1.616925 4:-1.0832504 5:0.71686657 6:-1.0832504 
-1.6836964821683522 1:-0.1831919 2:0.26683733 3:1.616925 4:1.1668958 5:1.616925 6:2.0669543 
-1.4612465727881683 1:-0.63322113 2:-0.63322113 3:1.616925 4:1.616925 5:1.616925 6:0.71686657 
-1.5536019217069639 1:-0.1831919 2:-0.1831919 3:-0.63322113 4:-1.0832504 5:-1.5332796 6:-0.63322113 
-0.28074348580753072 1:-1.0832504 2:-0.63322113 3:0.71686657 4:0.26683733 5:-0.1831919 6:0.26683733 
-6.8015912152906326 1:-1.5332796 2:-1.0832504 3:0.71686657 4:-0.63322113 5:0.71686657 6:0.26683733 
-0.91018674686837198 1:-0.1831919 2:-1.0832504 3:1.616925 4:-0.63322113 5:1.616925 6:0.26683733 
-8.236206190248911 1:-0.1831919 2:-1.0832504 3:-1.0832504 4:-0.63322113 5:-1.0832504 6:0.26683733 
-2.6493655413860493 1:-0.63322113 2:-0.63322113 3:-1.0832504 4:0.71686657 5:-1.0832504 6:1.616925 
-3.2501094308362157 1:-0.1831919 2:-0.63322113 3:-1.5332796 4:-0.1831919 5:-1.0832504 6:0.71686657 
-0.68194599592412286 1:-1.5332796 2:-1.0832504 3:0.26683733 4:-0.63322113 5:-0.1831919 6:0.26683733 
-2.579130320280044 1:-0.1831919 2:-0.1831919 3:1.616925 4:2.0669543 5:1.616925 6:1.1668958 
-1.4209990546961508 1:-0.1831919 2:-0.1831919 3:1.1668958 4:0.26683733 5:1.1668958 6:1.1668958 
-3.4260835065127133 1:-0.1831919 2:-0.63322113 3:-1.5332796 4:-1.0832504 5:-1.5332796 6:-0.1831919 
-2.3253117398551026 1:-0.1831919 2:-1.0832504 3:-0.1831919 4:1.616925 5:0.71686657 6:1.616925 
-8.5915735317219273 1:-0.1831919 2:-0.63322113 3:-1.5332796 4:1.616925 5:-0.63322113 6:1.616925 
-3.5337970571819262 1:-0.1831919 2:-0.63322113 3:1.1668958 4:2.0669543 5:1.1668958 6:1.1668958 
-3.7965796798764364 1:-1.5332796 2:-1.0832504 3:1.616925 4:0.26683733 5:1.616925 6:-0.63322113 
-2.4626822492290374 1:-0.1831919 2:-1.0832504 3:-1.0832504 4:2.0669543 5:-0.1831919 6:2.0669543 
-0.44780750801123481 1:-0.1831919 2:-1.0832504 3:1.616925 4:0.71686657 5:1.1668958 6:-0.1831919 
-0.07682538595109531 1:-0.63322113 2:-1.0832504 3:1.616925 4:-0.1831919 5:1.616925 6:0.71686657 
-1.3160074848646124 1:-0.1831919 2:-0.1831919 3:-1.5332796 4:1.616925 5:-1.0832504 6:0.71686657 
-1.688215223031718 1:-0.1831919 2:-1.0832504 3:1.616925 4:0.26683733 5:1.1668958 6:1.1668958 
-2.054425531523683 1:-1.0832504 2:-1.0832504 3:1.1668958 4:1.616925 5:0.26683733 6:1.616925 
-1.1421203234863728 1:-0.1831919 2:-0.63322113 3:-0.63322113 4:1.1668958 5:-0.63322113 6:0.26683733 
-4.7547581455310182 1:-0.63322113 2:-1.0832504 3:0.71686657 4:-1.0832504 5:1.616925 6:-1.0832504 
-1.0410065565370055 1:-1.0832504 2:-0.63322113 3:0.71686657 4:-0.1831919 5:0.71686657 6:-1.0832504 
-0.89442976496033566 1:-0.1831919 2:-0.63322113 3:-0.1831919 4:0.26683733 5:-0.1831919 6:1.1668958 
-1.9529685293925474 1:-0.63322113 2:-1.0832504 3:0.71686657 4:1.1668958 5:1.616925 6:1.1668958 
-2.2688889424893399 1:-0.1831919 2:-0.1831919 3:-0.63322113 4:1.1668958 5:-1.5332796 6:1.1668958 
-1.2727815500885944 1:-0.1831919 2:0.26683733 3:1.616925 4:-1.0832504 5:1.616925 6:-0.1831919 
-4.1298454741759745 1:-0.63322113 2:-1.0832504 3:-1.5332796 4:1.616925 5:-0.63322113 6:1.616925 
-4.6268009037269193 1:-0.1831919 2:-0.63322113 3:-1.0832504 4:-0.1831919 5:-0.63322113 6:0.71686657 
-10.221172996619549 1:-0.1831919 2:-0.63322113 3:-0.1831919 4:2.0669543 5:-0.1831919 6:1.1668958 
-0.4003280583926202 1:-0.1831919 2:-1.0832504 3:-0.63322113 4:0.26683733 5:-1.0832504 6:1.1668958 
-1.3897918357411321 1:-0.63322113 2:-1.0832504 3:-0.1831919 4:1.1668958 5:0.71686657 6:1.1668958 
-13.577543068459805 1:-1.5332796 2:-1.0832504 3:1.616925 4:-0.1831919 5:0.71686657 6:-0.1831919 
-4.1181052967659282 1:-1.0832504 2:-1.0832504 3:-1.0832504 4:-0.63322113 5:-1.0832504 6:-0.1831919 
-0.24489628120854767 1:-0.63322113 2:-1.0832504 3:-1.5332796 4:2.0669543 5:-0.63322113 6:2.0669543 
-3.6473860209322457 1:-0.63322113 2:-1.0832504 3:-0.63322113 4:1.1668958 5:-1.5332796 6:1.1668958 
-4.8708725920872729 1:-0.1831919 2:-0.63322113 3:1.1668958 4:-1.0832504 5:1.1668958 6:-0.1831919 
-2.7201238670762709 1:-0.1831919 2:0.26683733 3:1.1668958 4:1.616925 5:1.1668958 6:0.71686657 
-1.4856294661660905 1:-0.1831919 2:0.26683733 3:0.71686657 4:0.71686657 5:1.1668958 6:-0.1831919 
-1.744845942015196 1:-0.63322113 2:-0.1831919 3:1.616925 4:-0.1831919 5:1.616925 6:-1.0832504 
-5.1860929424890463 1:-0.1831919 2:-1.0832504 3:1.1668958 4:1.1668958 5:1.1668958 6:2.0669543 
-2.1513124933593892 1:-0.63322113 2:-0.63322113 3:-1.0832504 4:1.616925 5:-1.0832504 6:0.71686657 
-1.5204022587444879 1:-0.1831919 2:0.26683733 3:0.26683733 4:-1.0832504 5:-0.63322113 6:-0.63322113 
-2.695164930872985 1:-0.1831919 2:-0.1831919 3:-0.1831919 4:1.616925 5:-1.0832504 6:1.1668958 
-5.8140537359529416 1:-0.63322113 2:-0.1831919 3:-0.1831919 4:0.26683733 5:0.26683733 6:0.71686657 
-2.5469062555416904 1:-0.1831919 2:-0.1831919 3:0.71686657 4:1.1668958 5:-0.1831919 6:1.1668958 
-1.3871660615862775 1:-1.0832504 2:-1.0832504 3:0.26683733 4:0.26683733 5:-0.63322113 6:0.71686657 
-5.5631327288106132 1:-0.1831919 2:-1.0832504 3:0.26683733 4:-0.63322113 5:0.71686657 6:-1.0832504 
-1.6497502506232955 1:-0.1831919 2:-0.1831919 3:-1.5332796 4:-0.1831919 5:-1.0832504 6:-1.0832504 
-5.309350690842594 1:-0.1831919 2:-0.1831919 3:-1.0832504 4:0.26683733 5:-1.0832504 6:1.1668958 
-3.5467556123391621 1:-1.5332796 2:-1.0832504 3:0.71686657 4:-0.1831919 5:0.71686657 6:-1.0832504 
-0.90081845317474385 1:-1.0832504 2:-1.0832504 3:-1.0832504 4:0.26683733 5:-0.1831919 6:0.26683733 
-5.995115517931902 1:-0.1831919 2:-0.63322113 3:-0.1831919 4:-0.1831919 5:-0.1831919 6:0.26683733 
-2.2935672198225685 1:-1.0832504 2:-1.0832504 3:-1.0832504 4:1.1668958 5:-1.0832504 6:0.26683733 
-0.16979020273888895 1:-0.1831919 2:0.26683733 3:1.616925 4:0.71686657 5:0.71686657 6:1.1668958 
-11.589710365997298 1:-0.63322113 2:-1.0832504 3:0.26683733 4:1.1668958 5:0.26683733 6:2.0669543 
-4.3974172887171816 1:-1.0832504 2:-1.0832504 3:-0.63322113 4:1.1668958 5:-0.63322113 6:2.0669543 
-3.0810063115672079 1:-0.63322113 2:-0.1831919 3:0.26683733 4:1.1668958 5:1.1668958 6:1.1668958 
-6.7209407420400513 1:-0.1831919 2:-1.0832504 3:-0.63322113 4:0.71686657 5:0.26683733 6:0.71686657 
-1.3932650981188237 1:-0.1831919 2:0.26683733 3:-0.1831919 4:-1.0832504 5:-1.0832504 6:-1.0832504 
-6.5781205246717045 1:-1.0832504 2:-0.63322113 3:1.1668958 4:1.616925 5:1.1668958 6:0.71686657 
-4.7195891098078517 1:-0.1831919 2:-0.1831919 3:1.616925 4:2.0669543 5:0.71686657 6:1.616925 
-6.1194082700171073 1:-0.1831919 2:-1.0832504 3:-0.63322113 4:1.1668958 5:-0.63322113 6:2.0669543 
-1.1000616806499859 1:-0.1831919 2:-1.0832504 3:1.616925 4:1.1668958 5:1.1668958 6:0.26683733 
-1.9344362203582279 1:-0.1831919 2:-0.1831919 3:1.616925 4:-0.1831919 5:1.616925 6:-1.0832504 
-0.54077131544097068 1:-1.0832504 2:-1.0832504 3:-0.1831919 4:0.26683733 5:-0.63322113 6:1.1668958 
-5.0945807478430911 1:-0.63322113 2:-0.1831919 3:-0.1831919 4:-0.63322113 5:-0.1831919 6:-1.0832504 
-5.6163587928287848 1:-1.0832504 2:-1.0832504 3:-0.1831919 4:-1.0832504 5:-0.1831919 6:-0.1831919 
-5.9921034285045538 1:-0.1831919 2:-1.0832504 3:-1.0832504 4:-0.1831919 5:-0.1831919 6:-0.1831919 
-1.8373836276515307 1:-0.63322113 2:-1.0832504 3:1.616925 4:1.616925 5:0.71686657 6:2.0669543 
-0.98627916888416356 1:-1.0832504 2:-1.0832504 3:0.71686657 4:2.0669543 5:-0.1831919 6:2.0669543 
-1.7173457063910169 1:-0.1831919 2:-1.0832504 3:-0.63322113 4:1.616925 5:-1.5332796 6:2.0669543 
-0.45038206171468903 1:-0.1831919 2:-0.1831919 3:-0.63322113 4:1.616925 5:0.26683733 6:2.0669543 
-1.0323795370141602 1:-0.63322113 2:-0.63322113 3:1.1668958 4:0.26683733 5:0.26683733 6:0.26683733 
-5.0562484240190493 1:-0.63322113 2:-1.0832504 3:-0.63322113 4:1.616925 5:0.26683733 6:1.616925 
-5.8256185340335795 1:-0.63322113 2:-0.63322113 3:-0.63322113 4:0.71686657 5:-1.5332796 6:0.71686657 
-3.3037619595929901 1:-0.1831919 2:0.26683733 3:1.616925 4:0.26683733 5:1.616925 6:1.1668958 
-2.8500245868371126 1:-1.0832504 2:-1.0832504 3:-0.1831919 4:-0.63322113 5:0.71686657 6:-0.63322113 
-11.003867471704764 1:-0.1831919 2:-0.63322113 3:0.26683733 4:-0.1831919 5:0.71686657 6:0.26683733 
-3.54525403749936 1:-1.0832504 2:-0.63322113 3:-0.1831919 4:-0.1831919 5:0.71686657 6:-0.1831919 
-6.0799305316191656 1:-0.1831919 2:0.26683733 3:-0.63322113 4:-1.0832504 5:0.26683733 6:-1.0832504 
-2.6393569291042547 1:-0.63322113 2:-0.63322113 3:1.1668958 4:-0.63322113 5:0.26683733 6:-1.0832504 
-0.66758691114744306 1:-0.63322113 2:-1.0832504 3:-0.1831919 4:0.71686657 5:-1.0832504 6:1.1668958 
-6.847051759468723 1:-0.1831919 2:0.26683733 3:-1.5332796 4:-1.0832504 5:-0.63322113 6:-1.0832504 
-1.1390977857298095 1:-1.5332796 2:-1.0832504 3:-1.0832504 4:-0.1831919 5:-0.1831919 6:-0.1831919 
-6.0992500154082956 1:-0.1831919 2:-0.63322113 3:-0.1831919 4:1.616925 5:0.71686657 6:1.616925 
-10.925866466664402 1:-0.63322113 2:-1.0832504 3:-1.0832504 4:-0.63322113 5:-1.5332796 6:-0.63322113 
-0.2276867182573738 1:-0.1831919 2:-0.1831919 3:-1.5332796 4:1.1668958 5:-0.63322113 6:1.616925 
-2.524951796513605 1:-1.0832504 2:-1.0832504 3:0.26683733 4:0.26683733 5:0.26683733 6:1.1668958 
-6.1396481749601657 1:-0.63322113 2:-0.1831919 3:0.71686657 4:0.26683733 5:0.71686657 6:1.1668958 
-1.1152680027333388 1:-0.63322113 2:-0.63322113 3:-0.63322113 4:1.616925 5:-0.63322113 6:0.71686657 
-3.230096477734187 1:-0.1831919 2:-0.1831919 3:-1.5332796 4:1.1668958 5:-1.5332796 6:2.0669543 
-0.47841149384552906 1:-0.1831919 2:-1.0832504 3:1.1668958 4:-1.0832504 5:1.616925 6:-0.1831919 
-5.4175292152621353 1:-1.0832504 2:-0.63322113 3:0.26683733 4:0.71686657 5:0.26683733 6:-0.1831919 
-1.2209450633783989 1:-0.63322113 2:-0.1831919 3:-1.0832504 4:-1.0832504 5:-0.1831919 6:-1.0832504 
-5.6348034281253474 1:-0.63322113 2:-1.0832504 3:-1.5332796 4:0.71686657 5:-0.63322113 6:0.71686657 
-0.60488328168514682 1:-0.1831919 2:0.26683733 3:0.26683733 4:-0.1831919 5:1.1668958 6:0.26683733 
-2.124432898876774 1:-0.1831919 2:-1.0832504 3:1.616925 4:0.26683733 5:0.71686657 6:0.26683733 
-2.5463348388139537 1:-0.63322113 2:-1.0832504 3:-1.0832504 4:0.26683733 5:-1.0832504 6:1.1668958 
-4.4243550472650748 1:-1.5332796 2:-1.0832504 3:0.71686657 4:-1.0832504 5:0.71686657 6:-0.1831919 
-1.6058302550290675 1:-0.1831919 2:-0.63322113 3:0.71686657 4:1.1668958 5:-0.1831919 6:1.1668958 
-0.85621842085216671 1:-0.1831919 2:-1.0832504 3:-0.63322113 4:2.0669543 5:0.26683733 6:2.0669543 
-2.175093322240147 1:-1.5332796 2:-1.0832504 3:0.26683733 4:-0.1831919 5:1.1668958 6:-0.1831919 
-3.4508407222583197 1:-0.1831919 2:-0.63322113 3:-1.5332796 4:0.71686657 5:-1.5332796 6:-0.1831919 
-3.7217756771676918 1:-1.0832504 2:-0.63322113 3:-0.63322113 4:-0.1831919 5:-0.1831919 6:-0.63322113 
-1.6588501558940236 1:-0.1831919 2:-0.1831919 3:-1.0832504 4:1.1668958 5:-1.0832504 6:2.0669543 
-11.14658500691254 1:-1.0832504 2:-1.0832504 3:-0.1831919 4:-0.1831919 5:0.71686657 6:-0.1831919 
-0.2984679878754653 1:-0.1831919 2:-1.0832504 3:1.616925 4:-1.0832504 5:0.71686657 6:-1.0832504 
-1.1400322159935994 1:-0.63322113 2:-0.1831919 3:1.1668958 4:0.71686657 5:1.1668958 6:-0.1831919 
-1.2027747087373104 1:-0.1831919 2:0.26683733 3:-1.5332796 4:-1.0832504 5:-0.63322113 6:-0.63322113 
-5.6378337934315788 1:-1.0832504 2:-1.0832504 3:0.71686657 4:1.616925 5:1.616925 6:1.616925 
-0.90869280218325321 1:-1.0832504 2:-0.63322113 3:0.26683733 4:-0.63322113 5:1.1668958 6:-0.63322113 
-2.2180330617030397 1:-0.1831919 2:-1.0832504 3:-0.63322113 4:-0.63322113 5:-1.0832504 6:-1.0832504 
-2.1232244330271706 1:-0.1831919 2:-0.1831919 3:-0.1831919 4:1.1668958 5:-0.1831919 6:2.0669543 
-4.5222016913340788 1:-1.0832504 2:-1.0832504 3:0.26683733 4:1.616925 5:-0.63322113 6:1.616925 
-10.065232535292067 1:-0.63322113 2:-0.63322113 3:-0.1831919 4:-1.0832504 5:0.26683733 6:-0.63322113 
-1.3055868154080539 1:-0.1831919 2:-0.1831919 3:1.616925 4:1.1668958 5:1.1668958 6:2.0669543 
-5.0165029592108068 1:-0.1831919 2:-0.1831919 3:0.71686657 4:-0.1831919 5:0.71686657 6:-1.0832504 
-3.642781859723808 1:-1.5332796 2:-1.0832504 3:-1.0832504 4:-0.63322113 5:-0.63322113 6:-0.1831919 
-3.0698204553016466 1:-1.0832504 2:-1.0832504 3:-1.5332796 4:0.71686657 5:-1.0832504 6:-0.1831919 
